Language model created by QuickLM on Fri Dec 18 11:59:35 EST 2015
Copyright (c) 1996-2010 Carnegie Mellon University and Alexander I. Rudnicky

The model is in standard ARPA format, designed by Doug Paul while he was at MITRE.

The code that was used to produce this language model is available in Open Source.
Please visit http://www.speech.cs.cmu.edu/tools/ for more information

The (fixed) discount mass is 0.5. The backoffs are computed using the ratio method.
This model based on a corpus of 60 sentences and 65 words

\data\
ngram 1=65
ngram 2=125
ngram 3=132

\1-grams:
-1.0466 </s> -0.3010
-1.0466 <s> -0.2314
-1.6487 A -0.2845
-2.8248 ABOUT -0.2991
-2.8248 ADIVCE? -0.2602
-2.3477 ADVICE -0.2602
-2.8248 ALRIGHT, -0.3004
-2.3477 AM -0.2991
-2.1258 AU -0.2978
-2.8248 CA -0.2824
-2.1258 CAFE -0.2978
-2.0466 CAN -0.2797
-2.2227 CAPPUCCINO -0.2602
-2.8248 CAPPUCCINO, -0.2978
-2.0466 CARAMEL -0.2912
-2.5237 COFFEE -0.2991
-2.8248 COURSE -0.2602
-2.2227 DECAF -0.2602
-2.8248 DECAF, -0.2978
-2.8248 DEFINITELY -0.2602
-2.5237 DO -0.2965
-2.8248 DONT -0.2997
-2.8248 FINE, -0.2991
-2.8248 FOR -0.3004
-2.8248 GIVE -0.3004
-1.9797 HAVE -0.2471
-2.8248 HOW -0.3004
-1.3776 I -0.2811
-2.8248 IDEA -0.2602
-2.3477 INTRODUCTION -0.2602
-2.5237 KNOW -0.2602
-2.2227 LAIT -0.2602
-2.8248 LAIT,PLEASE -0.2602
-1.8705 LATTE -0.2551
-2.8248 LATTE, -0.2978
-1.8705 LIKE -0.2851
-2.1258 LUNGO -0.2978
-2.0466 MACCHIATO -0.2602
-2.8248 MACCHIATO, -0.2978
-2.8248 ME -0.2965
-2.8248 ME? -0.2602
-2.3477 NO -0.2594
-2.8248 NO, -0.2991
-2.3477 NOT -0.2580
-2.8248 NOW -0.2602
-2.8248 OF -0.3004
-2.8248 OK, -0.2991
-2.1258 PLEASE -0.2602
-2.5237 RECOMMEND -0.2594
-2.3477 RECOMMENDATION -0.2602
-1.9797 SOME -0.2945
-2.8248 SOMETHING -0.3004
-2.8248 SUGGEST -0.2602
-2.3477 SUGGESTION -0.2602
-2.8248 SURE -0.2602
-2.1258 TEA -0.2945
-2.8248 THANK -0.2984
-2.3477 THANKS -0.2602
-1.9217 WANT -0.2865
-2.8248 WHAT -0.2997
-2.8248 WHY -0.2991
-1.8705 WOULD -0.2951
-2.8248 YES -0.2602
-2.8248 YES, -0.2978
-2.2227 YOU -0.2530

\2-grams:
-2.0792 <s> ADVICE 0.0000
-2.0792 <s> CA 0.0000
-1.7782 <s> CAFE 0.0000
-1.3010 <s> CAN 0.0000
-2.0792 <s> CAPPUCCINO 0.0000
-2.0792 <s> CAPPUCCINO, 0.0000
-1.6021 <s> CARAMEL 0.0000
-2.0792 <s> COFFEE 0.0000
-2.0792 <s> DEFINITELY 0.0000
-2.0792 <s> HOW 0.0000
-0.7175 <s> I 0.0000
-2.0792 <s> INTRODUCTION 0.0000
-1.7782 <s> LUNGO 0.0000
-2.0792 <s> MACCHIATO 0.0000
-2.0792 <s> NO -0.1249
-2.0792 <s> NO, 0.0000
-2.0792 <s> NOT -0.2218
-2.0792 <s> OF 0.0000
-2.0792 <s> RECOMMEND -0.1761
-2.0792 <s> RECOMMENDATION 0.0000
-2.0792 <s> SUGGEST 0.0000
-2.0792 <s> SUGGESTION 0.0000
-2.0792 <s> SURE 0.0000
-1.7782 <s> TEA 0.0000
-2.0792 <s> WHAT 0.0000
-2.0792 <s> WHY 0.0000
-2.0792 <s> YES 0.0000
-2.0792 <s> YES, 0.0000
-1.0000 A CAFE 0.0000
-1.0000 A CAPPUCCINO 0.0000
-1.0000 A CARAMEL -0.0669
-1.0000 A LUNGO -0.0792
-1.0000 A TEA -0.0792
-0.3010 ABOUT NO -0.1249
-0.3010 ADIVCE? </s> -0.3010
-0.3010 ADVICE </s> -0.3010
-0.3010 ALRIGHT, THANK 0.0000
-0.7782 AM ALRIGHT, 0.0000
-0.7782 AM FINE, 0.0000
-0.7782 AM OK, 0.0000
-0.3979 AU LAIT 0.0000
-1.0000 AU LAIT,PLEASE 0.0000
-0.3010 CA I -0.2518
-0.3010 CAFE AU 0.0000
-0.4771 CAN I -0.2518
-0.7782 CAN YOU -0.1761
-0.3010 CAPPUCCINO </s> -0.3010
-0.3010 CAPPUCCINO, PLEASE 0.0000
-0.3802 CARAMEL LATTE -0.1597
-1.0792 CARAMEL MACCHIATO 0.0000
-0.3010 COFFEE INTRODUCTION 0.0000
-0.3010 COURSE </s> -0.3010
-0.3010 DECAF </s> -0.3010
-0.3010 DECAF, PLEASE 0.0000
-0.3010 DEFINITELY </s> -0.3010
-0.6021 DO NOT -0.2218
-0.6021 DO YOU -0.2430
-0.3010 DONT KNOW 0.0000
-0.3010 FINE, THANKS 0.0000
-0.3010 FOR ME? 0.0000
-0.3010 GIVE ME 0.0000
-1.1461 HAVE </s> -0.3010
-0.4472 HAVE A 0.0000
-1.1461 HAVE NO -0.2218
-0.3010 HOW ABOUT 0.0000
-1.2711 I AM 0.0000
-1.7482 I DO -0.1761
-1.7482 I DONT 0.0000
-0.9700 I HAVE -0.0580
-0.8451 I WANT 0.0000
-0.7939 I WOULD 0.0000
-0.3010 IDEA </s> -0.3010
-0.3010 INTRODUCTION </s> -0.3010
-0.3010 KNOW </s> -0.3010
-0.3010 LAIT </s> -0.3010
-0.3010 LAIT,PLEASE </s> -0.3010
-0.6532 LATTE </s> -0.3010
-0.6532 LATTE MACCHIATO 0.0000
-1.2553 LATTE MACCHIATO, 0.0000
-0.3010 LATTE, PLEASE 0.0000
-0.5563 LIKE A 0.0000
-1.2553 LIKE COFFEE 0.0000
-0.7782 LIKE SOME -0.0580
-0.3979 LUNGO DECAF 0.0000
-1.0000 LUNGO DECAF, 0.0000
-0.3010 MACCHIATO </s> -0.3010
-0.3010 MACCHIATO, PLEASE 0.0000
-0.3010 ME SOME -0.2688
-0.3010 ME? </s> -0.3010
-0.4771 NO </s> -0.3010
-0.7782 NO IDEA 0.0000
-0.3010 NO, THANKS 0.0000
-0.7782 NOT </s> -0.3010
-0.7782 NOT KNOW 0.0000
-0.7782 NOT NOW 0.0000
-0.3010 NOW </s> -0.3010
-0.3010 OF COURSE 0.0000
-0.3010 OK, THANKS 0.0000
-0.3010 PLEASE </s> -0.3010
-0.6021 RECOMMEND </s> -0.3010
-0.6021 RECOMMEND SOMETHING 0.0000
-0.3010 RECOMMENDATION </s> -0.3010
-1.1461 SOME ADIVCE? 0.0000
-0.8451 SOME ADVICE 0.0000
-0.8451 SOME RECOMMENDATION 0.0000
-0.8451 SOME SUGGESTION 0.0000
-0.3010 SOMETHING FOR 0.0000
-0.3010 SUGGEST </s> -0.3010
-0.3010 SUGGESTION </s> -0.3010
-0.3010 SURE </s> -0.3010
-0.3979 TEA LATTE -0.1919
-1.0000 TEA LATTE, 0.0000
-0.3010 THANK YOU -0.2430
-0.3010 THANKS </s> -0.3010
-0.5051 WANT A 0.0000
-0.7270 WANT SOME -0.0580
-0.3010 WHAT DO -0.1761
-0.3010 WHY NOT -0.2218
-0.3010 WOULD LIKE 0.0000
-0.3010 YES </s> -0.3010
-0.3010 YES, PLEASE 0.0000
-0.9031 YOU </s> -0.3010
-0.9031 YOU GIVE 0.0000
-0.9031 YOU HAVE -0.2688
-0.9031 YOU RECOMMEND -0.1761

\3-grams:
-0.3010 <s> ADVICE </s>
-0.3010 <s> CA I
-0.3010 <s> CAFE AU
-0.4771 <s> CAN I
-0.7782 <s> CAN YOU
-0.3010 <s> CAPPUCCINO </s>
-0.3010 <s> CAPPUCCINO, PLEASE
-0.4771 <s> CARAMEL LATTE
-0.7782 <s> CARAMEL MACCHIATO
-0.3010 <s> COFFEE INTRODUCTION
-0.3010 <s> DEFINITELY </s>
-0.3010 <s> HOW ABOUT
-1.1856 <s> I AM
-1.6628 <s> I DO
-1.6628 <s> I DONT
-1.6628 <s> I HAVE
-0.7597 <s> I WANT
-0.7085 <s> I WOULD
-0.3010 <s> INTRODUCTION </s>
-0.6021 <s> LUNGO DECAF
-0.6021 <s> LUNGO DECAF,
-0.3010 <s> MACCHIATO </s>
-0.3010 <s> NO </s>
-0.3010 <s> NO, THANKS
-0.3010 <s> NOT NOW
-0.3010 <s> OF COURSE
-0.3010 <s> RECOMMEND </s>
-0.3010 <s> RECOMMENDATION </s>
-0.3010 <s> SUGGEST </s>
-0.3010 <s> SUGGESTION </s>
-0.3010 <s> SURE </s>
-0.6021 <s> TEA LATTE
-0.6021 <s> TEA LATTE,
-0.3010 <s> WHAT DO
-0.3010 <s> WHY NOT
-0.3010 <s> YES </s>
-0.3010 <s> YES, PLEASE
-0.3010 A CAFE AU
-0.3010 A CAPPUCCINO </s>
-0.3010 A CARAMEL LATTE
-0.3010 A LUNGO DECAF
-0.3010 A TEA LATTE
-0.3010 ABOUT NO </s>
-0.3010 ALRIGHT, THANK YOU
-0.3010 AM ALRIGHT, THANK
-0.3010 AM FINE, THANKS
-0.3010 AM OK, THANKS
-0.3010 AU LAIT </s>
-0.3010 AU LAIT,PLEASE </s>
-0.3010 CA I HAVE
-0.3979 CAFE AU LAIT
-1.0000 CAFE AU LAIT,PLEASE
-0.3010 CAN I HAVE
-0.6021 CAN YOU GIVE
-0.6021 CAN YOU RECOMMEND
-0.3010 CAPPUCCINO, PLEASE </s>
-0.3979 CARAMEL LATTE MACCHIATO
-1.0000 CARAMEL LATTE MACCHIATO,
-0.3010 CARAMEL MACCHIATO </s>
-0.3010 COFFEE INTRODUCTION </s>
-0.3010 DECAF, PLEASE </s>
-0.3010 DO NOT KNOW
-0.3010 DO YOU HAVE
-0.3010 DONT KNOW </s>
-0.3010 FINE, THANKS </s>
-0.3010 FOR ME? </s>
-0.3010 GIVE ME SOME
-1.0000 HAVE A CAFE
-1.0000 HAVE A CAPPUCCINO
-1.0000 HAVE A CARAMEL
-1.0000 HAVE A LUNGO
-1.0000 HAVE A TEA
-0.3010 HAVE NO IDEA
-0.3010 HOW ABOUT NO
-0.7782 I AM ALRIGHT,
-0.7782 I AM FINE,
-0.7782 I AM OK,
-0.3010 I DO NOT
-0.3010 I DONT KNOW
-0.3802 I HAVE A
-1.0792 I HAVE NO
-0.5051 I WANT A
-0.7270 I WANT SOME
-0.3010 I WOULD LIKE
-0.3010 LATTE MACCHIATO </s>
-0.3010 LATTE MACCHIATO, PLEASE
-0.3010 LATTE, PLEASE </s>
-1.0000 LIKE A CAFE
-1.0000 LIKE A CAPPUCCINO
-1.0000 LIKE A CARAMEL
-1.0000 LIKE A LUNGO
-1.0000 LIKE A TEA
-0.3010 LIKE COFFEE INTRODUCTION
-0.7782 LIKE SOME ADVICE
-0.7782 LIKE SOME RECOMMENDATION
-0.7782 LIKE SOME SUGGESTION
-0.3010 LUNGO DECAF </s>
-0.3010 LUNGO DECAF, PLEASE
-0.3010 MACCHIATO, PLEASE </s>
-0.3010 ME SOME ADIVCE?
-0.3010 NO IDEA </s>
-0.3010 NO, THANKS </s>
-0.3010 NOT KNOW </s>
-0.3010 NOT NOW </s>
-0.3010 OF COURSE </s>
-0.3010 OK, THANKS </s>
-0.3010 RECOMMEND SOMETHING FOR
-0.3010 SOME ADIVCE? </s>
-0.3010 SOME ADVICE </s>
-0.3010 SOME RECOMMENDATION </s>
-0.3010 SOME SUGGESTION </s>
-0.3010 SOMETHING FOR ME?
-0.3010 TEA LATTE </s>
-0.3010 TEA LATTE, PLEASE
-0.3010 THANK YOU </s>
-1.0000 WANT A CAFE
-1.0000 WANT A CAPPUCCINO
-1.0000 WANT A CARAMEL
-1.0000 WANT A LUNGO
-1.0000 WANT A TEA
-0.7782 WANT SOME ADVICE
-0.7782 WANT SOME RECOMMENDATION
-0.7782 WANT SOME SUGGESTION
-0.3010 WHAT DO YOU
-0.3010 WHY NOT </s>
-0.5563 WOULD LIKE A
-1.2553 WOULD LIKE COFFEE
-0.7782 WOULD LIKE SOME
-0.3010 YES, PLEASE </s>
-0.3010 YOU GIVE ME
-0.3010 YOU HAVE </s>
-0.3010 YOU RECOMMEND SOMETHING

\end\
