Language model created by QuickLM on Tue Dec 15 05:29:21 EST 2015
Copyright (c) 1996-2010 Carnegie Mellon University and Alexander I. Rudnicky

The model is in standard ARPA format, designed by Doug Paul while he was at MITRE.

The code that was used to produce this language model is available in Open Source.
Please visit http://www.speech.cs.cmu.edu/tools/ for more information

The (fixed) discount mass is 0.5. The backoffs are computed using the ratio method.
This model based on a corpus of 33 sentences and 37 words

\data\
ngram 1=37
ngram 2=64
ngram 3=67

\1-grams:
-1.0681 </s> -0.3010
-1.0681 <s> -0.2356
-1.4105 A -0.2732
-1.8876 AU -0.2954
-2.5866 CA -0.2838
-1.8876 CAFE -0.2954
-1.9845 CAN -0.2838
-1.9845 CAPPUCCINO -0.2622
-2.5866 CAPPUCCINO, -0.2954
-1.8876 CARAMEL -0.2908
-2.5866 COURSE -0.2622
-1.9845 DECAF -0.2622
-2.5866 DECAF, -0.2954
-1.8876 HAVE -0.2838
-1.4105 I -0.2838
-1.9845 LAIT -0.2622
-2.5866 LAIT,PLEASE -0.2622
-1.6323 LATTE -0.2560
-2.5866 LATTE, -0.2954
-1.8876 LIKE -0.2838
-1.8876 LUNGO -0.2954
-1.9845 MACCHIATO -0.2622
-2.5866 MACCHIATO, -0.2954
-2.5866 NO -0.2622
-2.5866 NO, -0.2999
-2.2856 NOT -0.2610
-2.5866 NOW -0.2622
-2.5866 OF -0.2999
-1.8876 PLEASE -0.2622
-2.5866 SURE -0.2622
-1.8876 TEA -0.2896
-2.5866 THANKS -0.2622
-1.8876 WANT -0.2838
-2.5866 WHY -0.2988
-1.8876 WOULD -0.2954
-2.5866 YES -0.2622
-2.5866 YES, -0.2954

\2-grams:
-1.8195 <s> CA 0.0000
-1.5185 <s> CAFE 0.0000
-1.2175 <s> CAN 0.0000
-1.8195 <s> CAPPUCCINO 0.0000
-1.8195 <s> CAPPUCCINO, 0.0000
-1.5185 <s> CARAMEL 0.0000
-0.8195 <s> I -0.1249
-1.5185 <s> LUNGO 0.0000
-1.8195 <s> NO 0.0000
-1.8195 <s> NO, 0.0000
-1.8195 <s> NOT -0.1761
-1.8195 <s> OF 0.0000
-1.8195 <s> SURE 0.0000
-1.5185 <s> TEA 0.0000
-1.8195 <s> WHY 0.0000
-1.8195 <s> YES 0.0000
-1.8195 <s> YES, 0.0000
-1.0000 A CAFE 0.0000
-1.0000 A CAPPUCCINO 0.0000
-1.0000 A CARAMEL 0.0000
-1.0000 A LUNGO -0.0792
-1.0000 A TEA -0.0792
-0.3979 AU LAIT 0.0000
-1.0000 AU LAIT,PLEASE 0.0000
-0.3010 CA I -0.2218
-0.3010 CAFE AU 0.0000
-0.3010 CAN I -0.2218
-0.3010 CAPPUCCINO </s> -0.3010
-0.3010 CAPPUCCINO, PLEASE 0.0000
-0.3010 CARAMEL LATTE -0.1597
-0.3010 COURSE </s> -0.3010
-0.3010 DECAF </s> -0.3010
-0.3010 DECAF, PLEASE 0.0000
-0.3010 HAVE A 0.0000
-0.7782 I HAVE 0.0000
-0.7782 I WANT 0.0000
-0.7782 I WOULD 0.0000
-0.3010 LAIT </s> -0.3010
-0.3010 LAIT,PLEASE </s> -0.3010
-0.6532 LATTE </s> -0.3010
-0.6532 LATTE MACCHIATO 0.0000
-1.2553 LATTE MACCHIATO, 0.0000
-0.3010 LATTE, PLEASE 0.0000
-0.3010 LIKE A 0.0000
-0.3979 LUNGO DECAF 0.0000
-1.0000 LUNGO DECAF, 0.0000
-0.3010 MACCHIATO </s> -0.3010
-0.3010 MACCHIATO, PLEASE 0.0000
-0.3010 NO </s> -0.3010
-0.3010 NO, THANKS 0.0000
-0.6021 NOT </s> -0.3010
-0.6021 NOT NOW 0.0000
-0.3010 NOW </s> -0.3010
-0.3010 OF COURSE 0.0000
-0.3010 PLEASE </s> -0.3010
-0.3010 SURE </s> -0.3010
-0.3979 TEA LATTE -0.1919
-1.0000 TEA LATTE, 0.0000
-0.3010 THANKS </s> -0.3010
-0.3010 WANT A 0.0000
-0.3010 WHY NOT -0.1761
-0.3010 WOULD LIKE 0.0000
-0.3010 YES </s> -0.3010
-0.3010 YES, PLEASE 0.0000

\3-grams:
-0.3010 <s> CA I
-0.3010 <s> CAFE AU
-0.3010 <s> CAN I
-0.3010 <s> CAPPUCCINO </s>
-0.3010 <s> CAPPUCCINO, PLEASE
-0.3010 <s> CARAMEL LATTE
-0.6021 <s> I WANT
-0.6021 <s> I WOULD
-0.6021 <s> LUNGO DECAF
-0.6021 <s> LUNGO DECAF,
-0.3010 <s> NO </s>
-0.3010 <s> NO, THANKS
-0.3010 <s> NOT NOW
-0.3010 <s> OF COURSE
-0.3010 <s> SURE </s>
-0.6021 <s> TEA LATTE
-0.6021 <s> TEA LATTE,
-0.3010 <s> WHY NOT
-0.3010 <s> YES </s>
-0.3010 <s> YES, PLEASE
-0.3010 A CAFE AU
-0.3010 A CAPPUCCINO </s>
-0.3010 A CARAMEL LATTE
-0.3010 A LUNGO DECAF
-0.3010 A TEA LATTE
-0.3010 AU LAIT </s>
-0.3010 AU LAIT,PLEASE </s>
-0.3010 CA I HAVE
-0.3979 CAFE AU LAIT
-1.0000 CAFE AU LAIT,PLEASE
-0.3010 CAN I HAVE
-0.3010 CAPPUCCINO, PLEASE </s>
-0.3979 CARAMEL LATTE MACCHIATO
-1.0000 CARAMEL LATTE MACCHIATO,
-0.3010 DECAF, PLEASE </s>
-1.0000 HAVE A CAFE
-1.0000 HAVE A CAPPUCCINO
-1.0000 HAVE A CARAMEL
-1.0000 HAVE A LUNGO
-1.0000 HAVE A TEA
-0.3010 I HAVE A
-0.3010 I WANT A
-0.3010 I WOULD LIKE
-0.3010 LATTE MACCHIATO </s>
-0.3010 LATTE MACCHIATO, PLEASE
-0.3010 LATTE, PLEASE </s>
-1.0000 LIKE A CAFE
-1.0000 LIKE A CAPPUCCINO
-1.0000 LIKE A CARAMEL
-1.0000 LIKE A LUNGO
-1.0000 LIKE A TEA
-0.3010 LUNGO DECAF </s>
-0.3010 LUNGO DECAF, PLEASE
-0.3010 MACCHIATO, PLEASE </s>
-0.3010 NO, THANKS </s>
-0.3010 NOT NOW </s>
-0.3010 OF COURSE </s>
-0.3010 TEA LATTE </s>
-0.3010 TEA LATTE, PLEASE
-1.0000 WANT A CAFE
-1.0000 WANT A CAPPUCCINO
-1.0000 WANT A CARAMEL
-1.0000 WANT A LUNGO
-1.0000 WANT A TEA
-0.3010 WHY NOT </s>
-0.3010 WOULD LIKE A
-0.3010 YES, PLEASE </s>

\end\
